digraph Tree {
node [shape=box, style="filled", color="black"] ;
0 [label="sepal length (cm) <= 5.45\ngini = 0.66\nsamples = 105\nvalue = [35, 41, 29]\nclass = versicolor", fillcolor="#eefdf4"] ;
1 [label="sepal width (cm) <= 2.8\ngini = 0.234\nsamples = 37\nvalue = [32, 5, 0]\nclass = setosa", fillcolor="#e99558"] ;
0 -> 1 [labeldistance=2.5, labelangle=45, headlabel="True"] ;
2 [label="gini = 0.32\nsamples = 5\nvalue = [1, 4, 0]\nclass = versicolor", fillcolor="#6aeca0"] ;
1 -> 2 ;
3 [label="gini = 0.061\nsamples = 32\nvalue = [31, 1, 0]\nclass = setosa", fillcolor="#e6853f"] ;
1 -> 3 ;
4 [label="sepal length (cm) <= 6.25\ngini = 0.536\nsamples = 68\nvalue = [3, 36, 29]\nclass = versicolor", fillcolor="#dbfae8"] ;
0 -> 4 [labeldistance=2.5, labelangle=-45, headlabel="False"] ;
5 [label="gini = 0.478\nsamples = 37\nvalue = [3, 25, 9]\nclass = versicolor", fillcolor="#8ef0b7"] ;
4 -> 5 ;
6 [label="gini = 0.458\nsamples = 31\nvalue = [0, 11, 20]\nclass = virginica", fillcolor="#c6a6f3"] ;
4 -> 6 ;
}